<?xml version="1.0"?>
<opencv_storage>
<stage6>
  <maxWeakCount>8</maxWeakCount>
  <stageThreshold>-9.8680728673934937e-01</stageThreshold>
  <weakClassifiers>
    <_>
      <internalNodes>
        0 -1 5751702 -1.3772002421319485e-04</internalNodes>
      <leafValues>
        -6.0000002384185791e-01 7.6535290479660034e-01</leafValues></_>
    <_>
      <internalNodes>
        0 -1 5567451 6.5883761271834373e-04</internalNodes>
      <leafValues>
        -5.9815156459808350e-01 6.3649928569793701e-01</leafValues></_>
    <_>
      <internalNodes>
        0 -1 117808 1.0131414979696274e-02</internalNodes>
      <leafValues>
        -4.3579366803169250e-01 7.4360442161560059e-01</leafValues></_>
    <_>
      <internalNodes>
        0 -1 6195294 2.4021598510444164e-03</internalNodes>
      <leafValues>
        -4.2098128795623779e-01 7.3613959550857544e-01</leafValues></_>
    <_>
      <internalNodes>
        0 -1 3792325 1.2475271709263325e-02</internalNodes>
      <leafValues>
        -3.9371073246002197e-01 8.2805132865905762e-01</leafValues></_>
    <_>
      <internalNodes>
        0 -1 2123501 -4.6067852526903152e-02</internalNodes>
      <leafValues>
        9.8034036159515381e-01 -2.7998650074005127e-01</leafValues></_>
    <_>
      <internalNodes>
        0 -1 1043861 4.1610419750213623e-02</internalNodes>
      <leafValues>
        -1.9116644561290741e-01 9.2494213581085205e-01</leafValues></_>
    <_>
      <internalNodes>
        0 -1 5459283 6.0399649664759636e-03</internalNodes>
      <leafValues>
        -3.5164535045623779e-01 7.5358480215072632e-01</leafValues></_></weakClassifiers></stage6>
</opencv_storage>
