<?xml version="1.0"?>
<opencv_storage>
<stage17>
  <maxWeakCount>8</maxWeakCount>
  <stageThreshold>-4.6511712670326233e-01</stageThreshold>
  <weakClassifiers>
    <_>
      <internalNodes>
        0 -1 5469961 2.1929697595624020e-06</internalNodes>
      <leafValues>
        -4.2708334326744080e-01 7.4354243278503418e-01</leafValues></_>
    <_>
      <internalNodes>
        0 -1 5545274 1.6087846597656608e-03</internalNodes>
      <leafValues>
        -4.4099146127700806e-01 6.4158648252487183e-01</leafValues></_>
    <_>
      <internalNodes>
        0 -1 4906956 7.1223899722099304e-03</internalNodes>
      <leafValues>
        -2.8320655226707458e-01 8.3902180194854736e-01</leafValues></_>
    <_>
      <internalNodes>
        0 -1 3967597 3.8786865770816803e-03</internalNodes>
      <leafValues>
        -4.0168923139572144e-01 5.3736132383346558e-01</leafValues></_>
    <_>
      <internalNodes>
        0 -1 6203688 -1.3564348220825195e-02</internalNodes>
      <leafValues>
        5.6657397747039795e-01 -3.3094152808189392e-01</leafValues></_>
    <_>
      <internalNodes>
        0 -1 5662381 8.2966405898332596e-04</internalNodes>
      <leafValues>
        -4.4123929738998413e-01 5.3455084562301636e-01</leafValues></_>
    <_>
      <internalNodes>
        0 -1 7653648 -8.2329573342576623e-04</internalNodes>
      <leafValues>
        -8.5657209157943726e-01 3.0201068520545959e-01</leafValues></_>
    <_>
      <internalNodes>
        0 -1 4341702 1.0317561682313681e-03</internalNodes>
      <leafValues>
        -4.6360492706298828e-01 6.0025763511657715e-01</leafValues></_></weakClassifiers></stage17>
</opencv_storage>
